Hyperparameter shuffle (CART)...

Full hyperparameter shuffle results:
   rank    status    cp minsplit maxdepth    xerror nsplit Uses_AI      Salary
1     1 no_splits 0.020       20        5 0.0000000      0       0   0.0000000
2     2 no_splits 0.020       40        5 0.0000000      0       0   0.0000000
3     3 no_splits 0.020       20        8 0.0000000      0       0   0.0000000
4     4 no_splits 0.020       40        8 0.0000000      0       0   0.0000000
5     5        ok 0.001       20        5 0.9810454    125       0 214.9233667
6     6        ok 0.001       40        5 0.9810454    125       0 214.9233667
7     7        ok 0.001       20        8 0.9810454    125       0 214.9233667
8     8        ok 0.001       40        8 0.9810454    125       0 214.9233667
9     9        ok 0.002       20        5 0.9831817     90       0 214.2922577
10   10        ok 0.002       40        5 0.9831817     90       0 214.2922577
11   11        ok 0.002       20        8 0.9831817     90       0 214.2922577
12   12        ok 0.002       40        8 0.9831817     90       0 214.2922577
13   13        ok 0.005       20        5 0.9889279     30       0   0.3823654
14   14        ok 0.008       20        5 0.9889279     30       0   0.3823654
15   15        ok 0.005       40        5 0.9889279     30       0   0.3823654
16   16        ok 0.008       40        5 0.9889279     30       0   0.3823654
17   17        ok 0.005       20        8 0.9889279     30       0   0.3823654
18   18        ok 0.008       20        8 0.9889279     30       0   0.3823654
19   19        ok 0.005       40        8 0.9889279     30       0   0.3823654
20   20        ok 0.008       40        8 0.9889279     30       0   0.3823654
21   21        ok 0.010       20        5 0.9906239     30       0   0.3823654
22   22        ok 0.010       40        5 0.9906239     30       0   0.3823654
23   23        ok 0.010       20        8 0.9906239     30       0   0.3823654
24   24        ok 0.010       40        8 0.9906239     30       0   0.3823654
   TimeSearching_Min Years_Exp Is_Remote
1              0.000    0.0000         0
2              0.000    0.0000         0
3              0.000    0.0000         0
4              0.000    0.0000         0
5           2660.757  783.4335         0
6           2660.757  783.4335         0
7           2660.757  783.4335         0
8           2660.757  783.4335         0
9           2339.859  783.0128         0
10          2339.859  783.0128         0
11          2339.859  783.0128         0
12          2339.859  783.0128         0
13          1879.899    0.0000         0
14          1879.899    0.0000         0
15          1879.899    0.0000         0
16          1879.899    0.0000         0
17          1879.899    0.0000         0
18          1879.899    0.0000         0
19          1879.899    0.0000         0
20          1879.899    0.0000         0
21          1879.899    0.0000         0
22          1879.899    0.0000         0
23          1879.899    0.0000         0
24          1879.899    0.0000         0

Training CART Model (best by xerror)...

======================================================
--- VARIABLE IMPORTANCE ---
TimeSearching_Min         Years_Exp            Salary 
        2660.7569          783.4335          214.9234 

--- MODEL SUMMARY ---
n= 39041 

node), split, n, deviance, yval
      * denotes terminal node

 1) root 39041 168219.20 6.928281  
   2) TimeSearching_Min>=67.5 9833  50111.58 6.550086  
     4) TimeSearching_Min>=120 2954  18870.97 6.220041 *
     5) TimeSearching_Min< 120 6879  30780.65 6.691816 *
   3) TimeSearching_Min< 67.5 29208 116227.70 7.055601  
     6) Years_Exp< 7.5 12832  53255.26 6.870636 *
     7) Years_Exp>=7.5 16376  62189.44 7.200537  
      14) TimeSearching_Min>=33.75 7627  29288.46 7.050610 *
      15) TimeSearching_Min< 33.75 8749  32580.07 7.331238 *

--- BEST HYPERPARAMS ---
     cp minsplit maxdepth    xerror nsplit
1 0.001       20        5 0.9810454    125